<?xml version="1.0" encoding="ISO-8859-1"?>
<!-- This network was created in GeNIe Academic, which can be used for educational and research purposes only -->
<smile version="1.0" id="Network2" numsamples="10000" discsamples="10000">
	<nodes>
		<cpt id="sexo">
			<state id="masc" />
			<state id="fem" />
			<probabilities>0.441 0.5589999999999999</probabilities>
		</cpt>
		<noisymax id="tipo_atendimento">
			<state id="eletivo" />
			<state id="urgencia" />
			<state id="acidente_local_trabalho" />
			<state id="outros_acidentes_trabalho" />
			<state id="outras_causas_externas" />
			<parameters>0.2452307949482456 0.7544551844582233 1.96262995956982e-05 0.0002747679943397793 1.962629959550988e-05</parameters>
		</noisymax>
		<cpt id="raca">
			<state id="branca" />
			<state id="preta" />
			<state id="parda" />
			<state id="amarela" />
			<state id="indigena" />
			<state id="sem_informacao" />
			<probabilities>0.8631350806401201 0.06801064366573369 0.04800751317581201 0.004000626097984334 0.0002200344353891384 0.01662610198496073</probabilities>
		</cpt>
		<cpt id="faixa_etaria">
			<state id="menor_1" />
			<state id="ano_1_a_4" />
			<state id="ano_5_a_9" />
			<state id="ano_10_a_14" />
			<state id="ano_15_a_19" />
			<state id="ano_20_a_29" />
			<state id="ano_30_a_39" />
			<state id="ano_40_a_49" />
			<state id="ano_50_a_59" />
			<state id="ano_60_a_69" />
			<state id="ano_70_a_79" />
			<state id="ano_80_e_mais" />
			<probabilities>0.04468792470758019 0.03089918735137265 0.02509933988736096 0.02205941983725828 0.04219589024808647 0.1648956632440567 0.154376939886481 0.1083931492601744 0.1301975758037563 0.1361634189020829 0.08615773405159444 0.05487375682019568</probabilities>
		</cpt>
		<cpt id="cidade">
			<state id="armazem" />
			<state id="criciuma" />
			<state id="florianopolis" />
			<state id="gravatal" />
			<state id="tubarao" />
			<state id="outras_cidades" />
			<parents>tipo_atendimento sexo raca faixa_etaria</parents>
			<probabilities>0.01036269430051814 0.2352331606217617 0.6082901554404145 0.02487046632124352 0.121243523316062 0 0.0194300518134715 0.1955958549222798 0.6126943005181347 0.01813471502590673 0.1541450777202074 0 0.01492537313432836 0.2582089552238806 0.5567164179104478 0.01641791044776119 0.1537313432835821 0 0.009708737864077669 0.229126213592233 0.6213592233009708 0.009708737864077669 0.1300970873786409 0 0.01340996168582376 0.2318007662835249 0.5900383141762452 0.007662835249042145 0.1570881226053641 0 0.02586206896551724 0.1798850574712644 0.610919540229885 0.02011494252873563 0.1632183908045978 0 0.03079794680354643 0.2188520765282315 0.594493700419972 0.01306579561362576 0.1427904806346244 0 0.01863084922010399 0.2335355285961872 0.5749566724436742 0.01559792027729636 0.1572790294627383 0 0.02041438147471054 0.2617306520414381 0.4917733089579525 0.02437538086532602 0.2017062766605728 0 0.01909241837299391 0.2675705589374654 0.460431654676259 0.02379634753735473 0.229109020475927 0 0.03627180899908173 0.2754820936639119 0.4545454545454545 0.03627180899908173 0.1974288337924701 0 0.04091816367265469 0.2714570858283433 0.4790419161676647 0.01796407185628742 0.1906187624750498 0 0 0.2584269662921349 0.6404494382022472 0.03370786516853932 0.06741573033707871 0 0.03125 0.4375 0.40625 0 0.125 0 0 0.4444444444444444 0.3703703703703703 0.1111111111111111 0.07407407407407418 0 0.05882352941176471 0.5294117647058824 0.3529411764705883 0 0.05882352941176472 0 0.02941176470588235 0.2058823529411765 0.5 0.02941176470588235 0.2352941176470588 0 0 0.2011834319526627 0.650887573964497 0.02958579881656805 0.1183431952662721 0 0.004032258064516129 0.1774193548387097 0.6975806451612904 0.01209677419354839 0.1088709677419354 0 0 0.2547169811320755 0.6273584905660378 0.01415094339622642 0.1037735849056604 0 0.01041666666666667 0.2864583333333333 0.5833333333333334 0.015625 0.1041666666666666 0 0 0.3216374269005848 0.4444444444444444 0.02339181286549707 0.2105263157894737 0 0 0.3536585365853658 0.4268292682926829 0.02439024390243903 0.1951219512195121 0 0 0.4545454545454545 0.2272727272727273 0.04545454545454546 0.2727272727272728 0 0 0.3461538461538461 0.6153846153846154 0.01923076923076923 0.01923076923076916 0 0 0.08108108108108109 0.9054054054054054 0 0.0135135135135136 0 0 0.1875 0.75 0.0625 0 0 0 0.2666666666666667 0.7 0 0.03333333333333344 0 0 0.1724137931034483 0.7586206896551724 0 0.06896551724137934 0 0.006666666666666667 0.1133333333333333 0.8266666666666667 0 0.05333333333333334 0 0 0.07801418439716312 0.900709219858156 0.007092198581560284 0.01418439716312059 0 0 0.1885245901639344 0.7540983606557377 0 0.05737704918032793 0 0.007092198581560284 0.1914893617021277 0.7659574468085106 0 0.03546099290780136 0 0 0.2469135802469136 0.6296296296296297 0 0.1234567901234568 0 0 0.1612903225806452 0.8064516129032258 0 0.03225806451612911 0 0 0.1333333333333333 0.8666666666666667 0 0 0 0 0 1 0 0 0 0 0 0 0 0 1 0 1 0 0 0 0 0 0 0 0 0 1 0 0 1 0 0 0 0 0.09090909090909091 0.7272727272727273 0 0.1818181818181818 0 0 0.125 0.875 0 0 0 0 0.09090909090909091 0.8181818181818182 0 0.09090909090909091 0 0.1428571428571428 0.2857142857142857 0.4285714285714285 0 0.1428571428571428 0 0 0.2 0.4 0 0.4 0 0 0.3333333333333333 0.6666666666666666 0 0 0 0 0 0 0 0 1 0 0 0 0 0 1 0 0 0 0 0 1 0 0 0 0 0 1 0 0 0 0 0 1 0 0 0 0 0 1 0 0 1 0 0 0 0 0 0.8 0 0 0.2 0 0 1 0 0 0 0 0 0 0 0 1 0 0 0 0 0 1 0 0 0 0 0 1 0 0 0 0 0 1 0.04123711340206185 0.1752577319587629 0.3505154639175257 0.02061855670103093 0.4123711340206185 0 0.04545454545454546 0.2272727272727273 0.6818181818181818 0 0.04545454545454546 1.110223024625157e-16 0.04166666666666666 0.2083333333333333 0.6666666666666666 0 0.08333333333333333 0 0.07142857142857142 0.3571428571428572 0.2857142857142857 0 0.2857142857142857 0 0 0.125 0.125 0.125 0.625 0 0.03846153846153846 0.2692307692307692 0.2692307692307692 0 0.4230769230769231 0 0 0.3076923076923077 0.2307692307692307 0.2307692307692307 0.2307692307692307 2.220446049250313e-16 0.078125 0.28125 0.234375 0.078125 0.328125 0 0.03508771929824561 0.2631578947368421 0.3684210526315789 0.05263157894736842 0.2807017543859649 0 0.02083333333333333 0.1666666666666667 0.4583333333333333 0.04166666666666666 0.3125 1.110223024625157e-16 0.05 0.3 0.45 0.05 0.15 0 0 0.4615384615384616 0.3076923076923077 0 0.2307692307692308 0 0.01501877346683354 0.2715894868585732 0.5757196495619524 0.01376720901126408 0.1239048811013767 0 0.01663893510815308 0.194675540765391 0.6356073211314476 0.01164725457570715 0.1414309484193012 1.110223024625157e-16 0.0128755364806867 0.2467811158798283 0.5772532188841202 0.006437768240343348 0.1566523605150215 0 0.0105708245243129 0.2135306553911205 0.6300211416490487 0.002114164904862579 0.1437632135306554 0 0.01522435897435897 0.3028846153846154 0.5144230769230769 0.02243589743589744 0.1450320512820513 0 0.01761056633980388 0.2375425255153092 0.5821492895737442 0.01941164698819291 0.1432859715829498 0 0.02085720834288334 0.2156772862709145 0.5908778363511346 0.01581480632592253 0.1567728627091451 0 0.0231980115990058 0.2294946147473074 0.5588235294117647 0.0227837613918807 0.1657000828500414 0 0.02834467120181406 0.2985638699924414 0.4516250944822374 0.02229780801209373 0.1991685563114134 0 0.02144674663758633 0.2769901853871319 0.4696474009451109 0.02689930934205743 0.2050163576881134 0 0.03938265034592869 0.2740819584885578 0.4747205960617349 0.02288451303885045 0.1889302820649282 0 0.02941176470588235 0.258578431372549 0.4938725490196079 0.03492647058823529 0.1832107843137255 0 0 0.2531645569620253 0.6708860759493671 0.01265822784810127 0.06329113924050633 0 0 0.3846153846153846 0.4230769230769231 0 0.1923076923076923 0 0 0.5 0.3666666666666666 0.03333333333333333 0.1 0 0 0.4230769230769231 0.5384615384615384 0 0.03846153846153846 1.110223024625157e-16 0 0.2467532467532468 0.5779220779220779 0 0.1753246753246753 0 0.003134796238244514 0.268025078369906 0.5924764890282131 0.02037617554858934 0.115987460815047 0 0.002053388090349076 0.215605749486653 0.6550308008213552 0.006160164271047228 0.1211498973305955 0 0.009478672985781991 0.2132701421800948 0.6161137440758294 0 0.1611374407582938 0 0 0.3085106382978723 0.4468085106382979 0.005319148936170213 0.2393617021276596 0 0 0.3040540540540541 0.5067567567567568 0.02027027027027027 0.1689189189189189 0 0.02 0.24 0.44 0.03 0.27 0 0 0.2647058823529412 0.3970588235294117 0 0.3382352941176471 0 0 0.2586206896551724 0.7413793103448276 0 0 0 0 0.06666666666666667 0.9333333333333333 0 0 0 0 0.0625 0.875 0 0.0625 0 0 0.04878048780487805 0.9512195121951219 0 0 0 0.015625 0.2109375 0.734375 0.0078125 0.03125 0 0.001801801801801802 0.2396396396396396 0.7387387387387387 0 0.01981981981981982 0 0.00625 0.215625 0.746875 0.00625 0.025 0 0.007194244604316547 0.2517985611510791 0.7266187050359713 0 0.01438848920863309 0 0.02439024390243903 0.1463414634146341 0.7682926829268293 0 0.06097560975609756 0 0.01333333333333333 0.1866666666666667 0.7466666666666667 0.01333333333333333 0.04 0 0 0.2195121951219512 0.7317073170731707 0 0.04878048780487805 0 0 0.08333333333333333 0.8333333333333334 0 0.08333333333333333 0 0 0.5 0.5 0 0 0 0 0 1 0 0 0 0 0 1 0 0 0 0 0 1 0 0 0 0 0.125 0.875 0 0 0 0 0.1346153846153846 0.8653846153846154 0 0 0 0.03448275862068965 0.103448275862069 0.7931034482758621 0 0.06896551724137931 0 0 0.2 0.8 0 0 0 0.08333333333333333 0.08333333333333333 0.6666666666666666 0.08333333333333333 0.08333333333333333 0 0 0.25 0.75 0 0 0 0.08333333333333333 0 0.9166666666666666 0 0 0 0 0 1 0 0 0 0 0 0 0 0 1 0 0 0 0 0 1 0 0 0 0 0 1 0 0 0 0 0 1 0 0 1 0 0 0 0 0 0 0 0 1 0 0 1 0 0 0 0 0 0 0 0 1 0 0 0 0 0 1 0 0 0.5 0 0 0.5 0 0 0 0 0 1 0 0 0 0 0 1 0.03614457831325301 0.06024096385542169 0.3253012048192771 0.07228915662650602 0.5060240963855421 0 0 0.2666666666666667 0.6 0 0.1333333333333333 0 0 0.08333333333333333 0.8333333333333334 0 0.08333333333333333 0 0 0.7142857142857143 0.1428571428571428 0.1428571428571428 0 0 0.0625 0.4375 0.25 0.125 0.125 0 0.03174603174603174 0.1746031746031746 0.6031746031746031 0.03174603174603174 0.1587301587301587 0 0.05 0.3166666666666667 0.5333333333333333 0.05 0.05 0 0.1612903225806452 0.2258064516129032 0.3870967741935484 0.1290322580645161 0.09677419354838709 0 0.03703703703703703 0.2962962962962963 0.2962962962962963 0.2222222222222222 0.1481481481481481 1.110223024625157e-16 0.05 0.45 0.2 0.1 0.2 0 0.1379310344827586 0.2068965517241379 0.3793103448275862 0.03448275862068965 0.2413793103448276 0 0 0.4736842105263158 0.4736842105263158 0 0.05263157894736842 0 0 0.3461538461538461 0.6153846153846154 0.01923076923076923 0.01923076923076923 0 0 0.08108108108108109 0.9054054054054054 0 0.01351351351351351 1.110223024625157e-16 0 0.1875 0.75 0.0625 0 0 0 0.2666666666666667 0.7 0 0.03333333333333333 1.110223024625157e-16 0 0.1724137931034483 0.7586206896551724 0 0.06896551724137931 0 0.006666666666666667 0.1133333333333333 0.8266666666666667 0 0.05333333333333334 0 0 0.07801418439716312 0.900709219858156 0.007092198581560284 0.01418439716312057 0 0 0.1885245901639344 0.7540983606557377 0 0.05737704918032787 1.110223024625157e-16 0.007092198581560284 0.1914893617021277 0.7659574468085106 0 0.03546099290780142 0 0 0.2469135802469136 0.6296296296296297 0 0.1234567901234568 0 0 0.1612903225806452 0.8064516129032258 0 0.03225806451612903 1.110223024625157e-16 0 0.1333333333333333 0.8666666666666667 0 0 0 0 0.3150684931506849 0.5616438356164384 0.0410958904109589 0.0821917808219178 1.110223024625157e-16 0.04347826086956522 0.3043478260869565 0.5217391304347826 0 0.1304347826086956 0 0 0.25 0.5 0.125 0.125 0 0 0.5454545454545454 0.3636363636363636 0 0.09090909090909091 0 0.0303030303030303 0.2121212121212121 0.4848484848484849 0.0303030303030303 0.2424242424242424 0 0 0.2255639097744361 0.631578947368421 0.03007518796992481 0.112781954887218 0 0.006134969325153374 0.2024539877300613 0.6257668711656442 0.01226993865030675 0.1533742331288344 0 0 0.281437125748503 0.5988023952095808 0.01197604790419162 0.1077844311377246 1.110223024625157e-16 0.01282051282051282 0.3141025641025641 0.5256410256410257 0.01923076923076923 0.1282051282051282 0 0 0.3517241379310345 0.4206896551724138 0.02068965517241379 0.2068965517241379 0 0 0.4027777777777778 0.3611111111111111 0.01388888888888889 0.2222222222222222 1.110223024625157e-16 0 0.4444444444444444 0.2222222222222222 0 0.3333333333333333 0 0 0.34 0.62 0.02 0.02 0 0 0.09090909090909091 0.8909090909090909 0 0.01818181818181818 0 0 0.1875 0.75 0.0625 0 0 0 0.2857142857142857 0.7142857142857143 0 0 0 0 0.2222222222222222 0.6666666666666666 0 0.1111111111111111 0 0.009900990099009901 0.1188118811881188 0.7920792079207921 0 0.07920792079207921 0 0 0.09009009009009009 0.8828828828828829 0.009009009009009009 0.01801801801801802 0 0 0.2441860465116279 0.686046511627907 0 0.06976744186046512 0 0.009803921568627451 0.2156862745098039 0.7352941176470589 0 0.0392156862745098 0 0 0.2545454545454545 0.6181818181818182 0 0.1272727272727273 0 0 0.1666666666666667 0.7916666666666666 0 0.04166666666666666 1.110223024625157e-16 0 0.1538461538461539 0.8461538461538461 0 0 0 0 0 1 0 0 0 0 0 0 0 0 1 0 1 0 0 0 0 0 0 0 0 0 1 0 0 1 0 0 0 0 0 0.7142857142857143 0 0.2857142857142857 0 0 0 1 0 0 0 0 0 0.5 0 0.5 0 0.1428571428571428 0.2857142857142857 0.4285714285714285 0 0.1428571428571428 0 0 0.2 0.4 0 0.4 0 0 1 0 0 0 0 0 0 0 0 0 1 0 0 0 0 0 1 0 0 0 0 0 1 0 0 0 0 0 1 0 0 0 0 0 1 0 0 0 0 0 1 0 0 1 0 0 0 0 0 1 0 0 0 0 0 1 0 0 0 0 0 0 0 0 1 0 0 0 0 0 1 0 0 0 0 0 1 0 0 0 0 0 1 0.04395604395604396 0.1648351648351648 0.3406593406593407 0.02197802197802198 0.4285714285714285 0 0.1 0.1 0.7 0 0.1 1.110223024625157e-16 0.06666666666666667 0.06666666666666667 0.8666666666666667 0 0 0 0.125 0.25 0.375 0 0.25 0 0 0.1666666666666667 0.1666666666666667 0 0.6666666666666666 0 0.04761904761904762 0.2380952380952381 0.2857142857142857 0 0.4285714285714285 0 0 0.07142857142857142 0.3214285714285715 0.3928571428571428 0.2142857142857143 0 0.1212121212121212 0.2121212121212121 0.2121212121212121 0.09090909090909091 0.3636363636363636 0 0.05 0.25 0.35 0.025 0.325 0 0.02941176470588235 0.1470588235294118 0.4117647058823529 0.02941176470588235 0.3823529411764706 0 0 0.4 0.4666666666666667 0 0.1333333333333333 0 0 0.3636363636363636 0.3636363636363636 0 0.2727272727272727 0 0.01451187335092348 0.2730870712401056 0.5751978891820581 0.01451187335092348 0.1226912928759894 0 0.01864801864801865 0.1748251748251748 0.6317016317016317 0.01165501165501166 0.1631701631701632 0 0.01831501831501832 0.2161172161172161 0.5787545787545788 0.01098901098901099 0.1758241758241758 0 0.01423487544483986 0.1530249110320285 0.6725978647686833 0.003558718861209964 0.1565836298932384 0 0.01601423487544484 0.306049822064057 0.5133451957295374 0.02402135231316726 0.1405693950177936 0 0.01780151312861593 0.2389853137516689 0.573208722741433 0.02002670226969292 0.1499777481085892 1.110223024625157e-16 0.0188248716486024 0.2173416999429549 0.583000570450656 0.01397604107244723 0.1668568168853394 0 0.02396804260985353 0.2330226364846871 0.5239680426098535 0.01797603195739015 0.2010652463382157 0 0.03470031545741325 0.3198738170347003 0.3917981072555205 0.02145110410094637 0.2321766561514196 0 0.0277623542476402 0.297612437534703 0.4175458078845086 0.02665186007773459 0.2304275402554136 0 0.04548494983277592 0.3010033444816054 0.4254180602006689 0.0254180602006689 0.2026755852842809 0 0.03084304318026045 0.271418779986292 0.4633310486634681 0.0363262508567512 0.1980808773132282 0 0 0.2428571428571429 0.6714285714285714 0.01428571428571429 0.07142857142857142 1.110223024625157e-16 0 0.25 0.5 0 0.25 0 0 0.3333333333333333 0.4 0.06666666666666667 0.2 0 0 0.4090909090909091 0.5454545454545454 0 0.04545454545454546 0 0 0.2483221476510067 0.5771812080536913 0 0.174496644295302 0 0.003289473684210526 0.2697368421052632 0.5888157894736842 0.02138157894736842 0.1167763157894737 0 0.002364066193853428 0.2104018912529551 0.6595744680851063 0.007092198581560284 0.1205673758865248 1.110223024625157e-16 0.01360544217687075 0.217687074829932 0.5714285714285714 0 0.1972789115646258 0 0 0.319672131147541 0.4508196721311475 0 0.2295081967213115 0 0 0.26 0.5 0.02 0.22 0 0.02439024390243903 0.2317073170731707 0.3902439024390244 0.03658536585365853 0.3170731707317073 0 0 0.2622950819672131 0.360655737704918 0 0.3770491803278688 0 0 0.2745098039215687 0.7254901960784313 0 0 0 0 0.08333333333333333 0.9166666666666666 0 0 0 0 0 0.9166666666666666 0 0.08333333333333333 0 0 0.0625 0.9375 0 0 0 0.01666666666666667 0.2166666666666667 0.725 0.008333333333333333 0.03333333333333333 1.110223024625157e-16 0.001964636542239686 0.2573673870333988 0.7229862475442044 0 0.01768172888015717 0 0.007782101167315175 0.2334630350194553 0.7198443579766537 0.007782101167315175 0.0311284046692607 0 0 0.2409638554216867 0.7349397590361446 0 0.02409638554216868 0 0.025 0.225 0.675 0 0.075 0 0.01851851851851852 0.2407407407407407 0.6851851851851852 0.01851851851851852 0.03703703703703703 0 0 0.28125 0.65625 0 0.0625 0 0 0.1111111111111111 0.7777777777777778 0 0.1111111111111111 0 0 0.5 0.5 0 0 0 0 0 1 0 0 0 0 0 1 0 0 0 0 0.125 0.875 0 0 0 0 0.148936170212766 0.851063829787234 0 0 0 0.03703703703703703 0.1111111111111111 0.8148148148148148 0 0.03703703703703703 0 0 0.25 0.75 0 0 0 0.1111111111111111 0 0.6666666666666666 0.1111111111111111 0.1111111111111111 0 0 1 0 0 0 0 0.09090909090909091 0 0.9090909090909091 0 0 0 0 0 1 0 0 0 0.03149606299212598 0.1181102362204724 0.8267716535433071 0.007874015748031496 0.01574803149606299 0 0 0 0 0 0 1 0 0 0 0 0 1 0 0 0 0 0 1 0 0 0 0 0 1 0 0 1 0 0 0 0 0 0 0 0 1 0 0 1 0 0 0 0 0 0 0 0 1 0 0 0 0 0 1 0 0 0 0 0 1 0 0 0 0 0 1 0 0 0 0 0 1 0.0379746835443038 0.06329113924050633 0.3291139240506329 0.0759493670886076 0.4936708860759494 0 0 0.3636363636363636 0.4545454545454545 0 0.1818181818181818 0 0 0.1111111111111111 0.7777777777777778 0 0.1111111111111111 0 0 0 1 0 0 0 0.09090909090909091 0.4545454545454545 0.2727272727272727 0.09090909090909091 0.09090909090909091 0 0.03773584905660377 0.1320754716981132 0.6226415094339622 0.03773584905660377 0.169811320754717 1.110223024625157e-16 0.07142857142857142 0.3095238095238095 0.5 0.04761904761904762 0.07142857142857142 0 0.1428571428571428 0.1428571428571428 0.6428571428571429 0 0.07142857142857142 0 0.1666666666666667 0.1666666666666667 0.5 0 0.1666666666666667 1.110223024625157e-16 0 0.5555555555555556 0.2777777777777778 0 0.1666666666666667 0 0.1818181818181818 0.2272727272727273 0.4090909090909091 0 0.1818181818181818 0 0 0.4444444444444444 0.5 0 0.05555555555555555 0 0 0 0 0 0 1 0 0 0 0 0 1 0 0 0 0 0 1 0 0 0 0 0 1 0 0 0 0 0 1 0 0 0 0 0 1 0 0 0 0 0 1 0 0 0 0 0 1 0 0 0 0 0 1 0 0 0 0 0 1 0 0 0 0 0 1 0 0 0 0 0 1 0 0 0 0 0 1 0 0 0 0 0 1 0 0 0 0 0 1 0 0 0 0 0 1 0 0 0 0 0 1 0 0 0 0 0 1 0 0 0 0 0 1 0 0 0 0 0 1 0 0 0 0 0 1 0 0 0 0 0 1 0 0 0 0 0 1 0 0 0 0 0 1 0 0 0 0 0 1 0 0 0 0 0 1 0 0 0 0 0 1 0 0 0 0 0 1 0 0 0 0 0 1 0 0 1 0 0 0 0 0 0 0 0 1 0 0 0 0 0 1 0 0 0 0 0 1 0 0 0 0 0 1 0 0 0 0 0 1 0 0 0 0 0 1 0 0 0 0 0 1 0 0 0 0 0 1 0 0 0 0 0 1 0 0 0 0 0 1 0 0 0 0 0 1 0 0 0 0 0 1 0 0 0 0 0 1 0 0 0 0 0 1 0 0 0 0 0 1 0 0 0 0 0 1 0 0 0 0 0 1 0 0 0 0 0 1 0 0 0 0 0 1 0 0 0 0 0 1 0 0 0 0 0 1 0 0 0 0 0 1 0 0 0 0 0 1 0 0 0 0 0 1 0 0 0 0 0 1 0 0 0 0 0 1 0 0 0 0 0 1 0 0 0 0 0 1 0 0 0 0 0 1 0 0 0 0 0 1 0 0 0 0 0 1 0 0 0 0 0 1 0 0 0 0 0 1 0 0 0 0 0 1 0 0 0 0 0 1 0 0 0 0 0 1 0 0 0 0 0 1 0 0 0 0 0 1 0 0 0 0 0 1 0 0 0 0 0 1 0 0 0 0 0 1 0 0 0 0 0 1 0 0 0 0 0 1 0 0 0 0 0 1 0 0 0 0 0 1 0 0 0 0 0 1 0 0 0 0 0 1 0 0 0 0 0 1 0 0 0 0 0 1 0 0 0 0 0 1 0 0 0 0 0 1 0 0 0 0 0 1 0 0 0 0 0 1 0 0 0 0 0 1 0 0 0 0 0 1 0 0 0 0 0 1 0 0 0 0 0 1 0 0 0 0 0 1 0 0 0 0 0 1 0 0 0 0 0 1 0 0 0 0 0 1 0 0 0 0 0 1 0 0 0 0 0 1 0 0 0 0 0 1 0 0 0 0 0 1 0 0 0 0 0 1 0 0 0 0 0 1 0 0 0 0 0 1 0 0 0 0 0 1 0 0 0 0 0 1 0 0 0 0 0 1 0 0 0 0 0 1 0 0 0 0 0 1 0 0 0 0 0 1 0 0 0 0 0 1 0 0 0 0 0 1 0 0 0 0 0 1 0 0 0 0 0 1 0 0 0 0 0 1 0 0 0 0 0 1 0 0 0 0 0 1 0 0 0 0 0 1 0 0 0 0 0 1 0 0 0 0 0 1 0 0 0 0 0 1 0 0 0 0 0 1 0 0 0 0 0 1 0 0 0 0 0 1 0 0 0 0 0 1 0 0 0 0 0 1 0 0 0 0 0 1 0 0 0 0 0 1 0 0 0 0 0 1 0 0 0 0 0 1 0 0 0 0 0 1 0 0 0 0 0 1 0 0 0 0 0 1 0 0 0 0 0 1 0 0 0 0 0 1 0 0 0 0 0 1 0 0 0 0 0 1 0 0 0 0 0 1 0 0 0 0 0 1 0 0 0 0 0 1 0 0 0 0 0 1 0 0 0 0 0 1 0 0 0 0 0 1 0 0 0 0 0 1 0 0 0 0 0 1 0 0 0 0 0 1 0 0 0 0 0 1 0 0 0 0 0 1 0 0 0 0 0 1 0 0 0 0 0 1 0 0 0 0 0 1 0 0 0 0 0 1 0 0 0 0 0 1 0 0 0 0 0 1 0 0 0 0 0 1 0 0 0 0 0 1 0 0 0 0 0 1 0 0 0 0 0 1 0 0 0 0 0 1 0 0 0 0 0 1 0 0 0 0 0 1 0 0 0 0 0 1 0 0 0 0 0 1 0 0 0 0 0 1 0 0 0 0 0 1 0 0 0 0 0 1 0 0 0 0 0 1 0 0 0 0 0 1 0 0 0 0 0 1 0 0 0 0 0 1 0 0 0 0 0 1 0 0 0 0 0 1 0 0 0 0 0 1 0 0 0 0 0 1 0 0 0 0 0 1 0 0 0 0 0 1 0 0 0 0 0 1 0 0 0 0 0 1 0 0 0 0 0 1 0 0 0 0 0 1 0 0 0 0 0 1 0 0 0 0 0 1 0 0 0 0 0 1 0 0 0 0 0 1 0 0 0 0 0 1 0 0 0 0 0 1 0 0 0 0 0 1 0 0 0 0 0 1 0 0 0 0 0 1 0 0 0 0 0 1 0 0 0 0 0 1 0 0 0 0 0 1 0 0 0 0 0 1 0 0 0 0 0 1 0 0 0 0 0 1 0 0 0 0 0 1 0 0 0 0 0 1 0 0 0 0 0 1 0 0 0 0 0 1 0 0 0 0 0 1 0 0 0 0 0 1 0 0 0 0 0 1 0 0 0 0 0 1 0 0 0 0 0 1 0 0 0 0 0 1 0 0 0 0 0 1 0 0 0 0 0 1 0 0 0 0 0 1 0 0 0 0 0 1 0 0 0 0 0 1 0 0 0 0 0 1 0 0 0 0 0 1 0 0 0 0 0 1 0 0 0 0 0 1 0 0 0 0 0 1 0 0 0 0 0 1 0 0 0 0 0 1 0 0 0 0 0 1 0 0 0 0 0 1 0 0 0 0 0 1 0 0 0 0 0 1 0 0 0 0 0 1 0 0 0 0 0 1 0 0 0 0 0 1 0 0 0 0 0 1 0 0 0 0 0 1 0 0 0 0 0 1 0 0 0 0 0 1 0 0 0 0 0 1 0 0 0 0 0 1 0 0 0 0 0 1 0 0 0 0 0 1 0 0 0 0 0 1 0 0 0 0 0 1 0 0 0 0 0 1 0 0 0 0 0 1 0 0 0 0 0 1 0 0 0 0 0 1 0 0 0 0 0 1 0 0 0 0 0 1 0 0 0 0 0 1 0 0 0 0 0 1 0 0 0 0 0 1 0 0 0 0 0 1 0 0 0 0 0 1 0 0 0 0 0 1 0 0 0 0 0 1 0 0 0 0 0 1 0 0 0 0 0 1 0 0 0 0 0 1 0 0 0 0 0 1 0 0 0 0 0 1 0 0 0 0 0 1 0 0 0 0 0 1 0 0 0 0 0 1 0 0 0 0 0 1 0 0 0 0 0 1 0 0 0 0 0 1 0 0 0 0 0 1 0 0 0 0 0 1 0 0 0 0 0 1 0 0 0 0 0 1 0 0 0 0 0 1 0 0 0 0 0 1 0 0 0 0 0 1 0 0 0 0 0 1 0 0 0 0 0 1 0 0 0 0 0 1 0 0 0 0 0 1 0 0 0 0 0 1 0 0 0 0 0 1 0 0 0 0 0 1 0 0 0 0 0 1 0 0 0 0 0 1 0 0 0 0 0 1 0 0 0 0 0 1 0 0 0 0 0 1 0 0 0 0 0 1 0 0 0 0 0 1 0 0 0 0 0 1 0 0 0 0 0 1 0 0 0 0 0 1 0 0 0 0 0 1 0 0 0 0 0 1 0 0 0 0 0 1 0 0 0 0 0 1 0 0 0 0 0 1 0 0 0 0 0 1 0 0 0 0 0 1 0 0 0 0 0 1 0 0 0 0 0 1 0 0 0 0 0 1 0 0 0 0 0 1 0 0 0 0 0 1 0 0 0 0 0 1 0 0 0 0 0 1 0 0 0 0 0 1 0 0 0 0 0 1 0 0 0 0 0 1 0 0 0 0 0 1 0 0 0 0 0 1 0 0 0 0 0 1 0 0 0 0 0 1 0 0 0 0 0 1 0 0 0 0 0 1 0 0 0 0 0 1 0 0 0 0 0 1 0 0 0 0 0 1 0 0 0 0 0 1 0 0 0 0 0 1 0 0 0 0 0 1 0 0 0 0 0 1 0 0 0 0 0 1 0 0 0 0 0 1 0 0 0 0 0 1 0 0 0 0 0 1 0 0 0 0 0 1 0 0 0 0 0 1 0 0 0 0 0 1 0 0 0 0 0 1 0 0 0 0 0 1 0 0 0 0 0 1 0 0 0 0 0 1 0 0 0 0 0 1 0 0 0 0 0 1 0 0 0 0 0 1 0 0 0 0 0 1 0 0 0 0 0 1 0 0 0 0 0 1 0 0 0 0 0 1 0 0 0 0 0 1 0 0 0 0 0 1 0 0 0 0 0 1 0 0 0 0 0 1 0 0 0 0 0 1 0 0 0 0 0 1 0 0 0 0 0 1 0 0 0 0 0 1 0 0 0 0 0 1 0 0 0 0 0 1 0 0 0 0 0 1 0 0 0 0 0 1 0 0 0 0 0 1 0 0 0 0 0 1 0 0 0 0 0 1 0 0 0 0 0 1 0 0 0 0 0 1 0 0 0 0 0 1 0 0 0 0 0 1 0 0 0 0 0 1 0 0 0 0 0 1 0 0 0 0 0 1 0 0 0 0 0 1 0 0 0 0 0 1 0 0 0 0 0 1 0 0 0 0 0 1 0 0 0 0 0 1 0 0 0 0 0 1 0 0 0 0 0 1 0 0 0 0 0 1 0 0 0 0 0 1 0 0 0 0 0 1 0 0 0 0 0 1 0 0 0 0 0 1 0 0 0 0 0 1 0 0 0 0 0 1 0 0 0 0 0 1 0 0 0 0 0 1 0 0 0 0 0 1 0 0 0 0 0 1 0 0 0 0 0 1 0 0 0 0 0 1 0 0 0 0 0 1 0 0 0 0 0 1 0 0 0 0 0 1 0 0 0 0 0 1 0 0 0 0 0 1 0 0 0 0 0 1 0 0 0 0 0 1 0 0 0 0 0 1 0 0 0 0 0 1 0 0 0 0 0 1 0 0 0 0 0 1 0 0 0 0 0 1 0 0 0 0 0 1 0 0 0 0 0 1 0 0 0 0 0 1 0 0 0 0 0 1 0 0 0 0 0 1 0 0 0 0 0 1 0 0 0 0 0 1 0 0 0 0 0 1 0 0 0 0 0 1 0 0 0 0 0 1 0 0 0 0 0 1 0 0 0 0 0 1 0 0 0 0 0 1 0 0 0 0 0 1 0 0 0 0 0 1 0 0 0 0 0 1 0 0 0 0 0 1 0 0 0 0 0 1 0 0 0 0 0 1 0 0 0 0 0 1 0 0 0 0 0 1 0 0 0 0 0 1 0 0 0 0 0 1 0 0 0 0 0 1 0 0 0 0 0 1 0 0 0 0 0 1 0 0 0 0 0 1 0 0 0 0 0 1 0 0 0 0 0 1 0 0 0 0 0 1 0 0 0 0 0 1 0 0 0 0 0 1 0 0 0 0 0 1 0 0 0 0 0 1 0 0 0 0 0 1 0 0 0 0 0 1 0 0 0 0 0 1 0 0 0 0 0 1 0 0 0 0 0 1 0 0 0 0 0 1 0 0 0 0 0 1 0 0 0 0 0 1 0 0 0 0 0 1 0 0 0 0 0 1 0 0 0 0 0 1 0 0 0 0 0 1 0 0 0 0 0 1 0 0 0 0 0 1 0 0 0 0 0 1 0 0 0 0 0 1 0 0 0 0 0 1 0 0 0 0 0 1 0 0 0 0 0 1 0 0 0 0 0 1</probabilities>
		</cpt>
	</nodes>
	<cases>
		<case name="Case0001">
		</case>
		<case name="Case0002">
		</case>
		<case name="Case0003">
		</case>
		<case name="Case0004">
		</case>
		<case name="Case0005">
		</case>
		<case name="Case0006">
		</case>
		<case name="Case0007">
		</case>
		<case name="Case0008">
		</case>
		<case name="Case0009">
		</case>
		<case name="Case0010">
		</case>
		<case name="Case0011">
		</case>
		<case name="Case0012">
		</case>
		<case name="Case0013">
		</case>
		<case name="Case0014">
		</case>
		<case name="Case0015">
		</case>
		<case name="Case0016">
		</case>
		<case name="Case0017">
		</case>
		<case name="Case0018">
		</case>
		<case name="Case0019">
		</case>
		<case name="Case0020">
		</case>
		<case name="Case0021">
		</case>
		<case name="Case0022">
		</case>
		<case name="Case0023">
		</case>
		<case name="Case0024">
		</case>
		<case name="Case0025">
		</case>
		<case name="Case0026">
		</case>
		<case name="Case0027">
		</case>
		<case name="Case0028">
		</case>
		<case name="Case0029">
		</case>
		<case name="Case0030">
		</case>
		<case name="Case0031">
		</case>
		<case name="Case0032">
		</case>
		<case name="Case0033">
		</case>
		<case name="Case0034">
		</case>
		<case name="Case0035">
		</case>
		<case name="Case0036">
		</case>
		<case name="Case0037">
		</case>
		<case name="Case0038">
		</case>
		<case name="Case0039">
		</case>
		<case name="Case0040">
		</case>
		<case name="Case0041">
		</case>
		<case name="Case0042">
		</case>
		<case name="Case0043">
		</case>
		<case name="Case0044">
		</case>
		<case name="Case0045">
		</case>
		<case name="Case0046">
		</case>
		<case name="Case0047">
		</case>
		<case name="Case0048">
		</case>
		<case name="Case0049">
		</case>
		<case name="Case0050">
		</case>
		<case name="Case0051">
		</case>
		<case name="Case0052">
		</case>
		<case name="Case0053">
		</case>
		<case name="Case0054">
		</case>
		<case name="Case0055">
		</case>
		<case name="Case0056">
		</case>
		<case name="Case0057">
		</case>
		<case name="Case0058">
		</case>
		<case name="Case0059">
		</case>
		<case name="Case0060">
		</case>
		<case name="Case0061">
		</case>
		<case name="Case0062">
		</case>
		<case name="Case0063">
		</case>
		<case name="Case0064">
		</case>
		<case name="Case0065">
		</case>
		<case name="Case0066">
		</case>
		<case name="Case0067">
		</case>
		<case name="Case0068">
		</case>
		<case name="Case0069">
		</case>
		<case name="Case0070">
		</case>
		<case name="Case0071">
		</case>
		<case name="Case0072">
		</case>
		<case name="Case0073">
		</case>
		<case name="Case0074">
		</case>
		<case name="Case0075">
		</case>
		<case name="Case0076">
		</case>
		<case name="Case0077">
		</case>
		<case name="Case0078">
		</case>
		<case name="Case0079">
		</case>
		<case name="Case0080">
		</case>
		<case name="Case0081">
		</case>
		<case name="Case0082">
		</case>
		<case name="Case0083">
		</case>
		<case name="Case0084">
		</case>
		<case name="Case0085">
		</case>
		<case name="Case0086">
		</case>
		<case name="Case0087">
		</case>
		<case name="Case0088">
		</case>
		<case name="Case0089">
		</case>
		<case name="Case0090">
		</case>
		<case name="Case0091">
		</case>
		<case name="Case0092">
		</case>
		<case name="Case0093">
		</case>
		<case name="Case0094">
		</case>
		<case name="Case0095">
		</case>
		<case name="Case0096">
		</case>
		<case name="Case0097">
		</case>
		<case name="Case0098">
		</case>
		<case name="Case0099">
		</case>
		<case name="Case0100">
		</case>
		<case name="Case0101">
		</case>
		<case name="Case0102">
		</case>
		<case name="Case0103">
		</case>
		<case name="Case0104">
		</case>
		<case name="Case0105">
		</case>
		<case name="Case0106">
		</case>
		<case name="Case0107">
		</case>
		<case name="Case0108">
		</case>
		<case name="Case0109">
		</case>
		<case name="Case0110">
		</case>
		<case name="Case0111">
		</case>
		<case name="Case0112">
		</case>
		<case name="Case0113">
		</case>
		<case name="Case0114">
		</case>
		<case name="Case0115">
		</case>
		<case name="Case0116">
		</case>
		<case name="Case0117">
		</case>
		<case name="Case0118">
		</case>
		<case name="Case0119">
		</case>
		<case name="Case0120">
		</case>
		<case name="Case0121">
		</case>
		<case name="Case0122">
		</case>
		<case name="Case0123">
		</case>
		<case name="Case0124">
		</case>
		<case name="Case0125">
		</case>
		<case name="Case0126">
		</case>
		<case name="Case0127">
		</case>
		<case name="Case0128">
		</case>
		<case name="Case0129">
		</case>
		<case name="Case0130">
		</case>
		<case name="Case0131">
		</case>
		<case name="Case0132">
		</case>
		<case name="Case0133">
		</case>
		<case name="Case0134">
		</case>
		<case name="Case0135">
		</case>
		<case name="Case0136">
		</case>
		<case name="Case0137">
		</case>
		<case name="Case0138">
		</case>
		<case name="Case0139">
		</case>
		<case name="Case0140">
		</case>
		<case name="Case0141">
		</case>
		<case name="Case0142">
		</case>
		<case name="Case0143">
		</case>
		<case name="Case0144">
		</case>
		<case name="Case0145">
		</case>
		<case name="Case0146">
		</case>
		<case name="Case0147">
		</case>
		<case name="Case0148">
		</case>
		<case name="Case0149">
		</case>
		<case name="Case0150">
		</case>
		<case name="Case0151">
		</case>
		<case name="Case0152">
		</case>
		<case name="Case0153">
		</case>
		<case name="Case0154">
		</case>
		<case name="Case0155">
		</case>
		<case name="Case0156">
		</case>
		<case name="Case0157">
		</case>
		<case name="Case0158">
		</case>
		<case name="Case0159">
		</case>
		<case name="Case0160">
		</case>
		<case name="Case0161">
		</case>
		<case name="Case0162">
		</case>
		<case name="Case0163">
		</case>
		<case name="Case0164">
		</case>
		<case name="Case0165">
		</case>
		<case name="Case0166">
		</case>
		<case name="Case0167">
		</case>
		<case name="Case0168">
		</case>
		<case name="Case0169">
		</case>
		<case name="Case0170">
		</case>
		<case name="Case0171">
		</case>
		<case name="Case0172">
		</case>
		<case name="Case0173">
		</case>
		<case name="Case0174">
		</case>
		<case name="Case0175">
		</case>
		<case name="Case0176">
		</case>
		<case name="Case0177">
		</case>
		<case name="Case0178">
		</case>
		<case name="Case0179">
		</case>
		<case name="Case0180">
		</case>
		<case name="Case0181">
		</case>
		<case name="Case0182">
		</case>
		<case name="Case0183">
		</case>
		<case name="Case0184">
		</case>
		<case name="Case0185">
		</case>
		<case name="Case0186">
		</case>
		<case name="Case0187">
		</case>
		<case name="Case0188">
		</case>
		<case name="Case0189">
		</case>
		<case name="Case0190">
		</case>
		<case name="Case0191">
		</case>
		<case name="Case0192">
		</case>
		<case name="Case0193">
		</case>
		<case name="Case0194">
		</case>
		<case name="Case0195">
		</case>
		<case name="Case0196">
		</case>
		<case name="Case0197">
		</case>
		<case name="Case0198">
		</case>
		<case name="Case0199">
		</case>
		<case name="Case0200">
		</case>
		<case name="Case0201">
		</case>
		<case name="Case0202">
		</case>
		<case name="Case0203">
		</case>
		<case name="Case0204">
		</case>
		<case name="Case0205">
		</case>
		<case name="Case0206">
		</case>
		<case name="Case0207">
		</case>
		<case name="Case0208">
		</case>
		<case name="Case0209">
		</case>
		<case name="Case0210">
		</case>
		<case name="Case0211">
		</case>
		<case name="Case0212">
		</case>
		<case name="Case0213">
		</case>
		<case name="Case0214">
		</case>
		<case name="Case0215">
		</case>
		<case name="Case0216">
		</case>
		<case name="Case0217">
		</case>
		<case name="Case0218">
		</case>
		<case name="Case0219">
		</case>
		<case name="Case0220">
		</case>
		<case name="Case0221">
		</case>
		<case name="Case0222">
		</case>
		<case name="Case0223">
		</case>
		<case name="Case0224">
		</case>
		<case name="Case0225">
		</case>
		<case name="Case0226">
		</case>
		<case name="Case0227">
		</case>
		<case name="Case0228">
		</case>
		<case name="Case0229">
		</case>
		<case name="Case0230">
		</case>
		<case name="Case0231">
		</case>
		<case name="Case0232">
		</case>
		<case name="Case0233">
		</case>
		<case name="Case0234">
		</case>
		<case name="Case0235">
		</case>
		<case name="Case0236">
		</case>
		<case name="Case0237">
		</case>
		<case name="Case0238">
		</case>
		<case name="Case0239">
		</case>
		<case name="Case0240">
		</case>
		<case name="Case0241">
		</case>
		<case name="Case0242">
		</case>
		<case name="Case0243">
		</case>
		<case name="Case0244">
		</case>
		<case name="Case0245">
		</case>
		<case name="Case0246">
		</case>
		<case name="Case0247">
		</case>
		<case name="Case0248">
		</case>
		<case name="Case0249">
		</case>
		<case name="Case0250">
		</case>
		<case name="Case0251">
		</case>
		<case name="Case0252">
		</case>
		<case name="Case0253">
		</case>
		<case name="Case0254">
		</case>
		<case name="Case0255">
		</case>
		<case name="Case0256">
		</case>
		<case name="Case0257">
		</case>
		<case name="Case0258">
		</case>
		<case name="Case0259">
		</case>
		<case name="Case0260">
		</case>
		<case name="Case0261">
		</case>
		<case name="Case0262">
		</case>
		<case name="Case0263">
		</case>
		<case name="Case0264">
		</case>
		<case name="Case0265">
		</case>
		<case name="Case0266">
		</case>
		<case name="Case0267">
		</case>
		<case name="Case0268">
		</case>
		<case name="Case0269">
		</case>
		<case name="Case0270">
		</case>
		<case name="Case0271">
		</case>
		<case name="Case0272">
		</case>
		<case name="Case0273">
		</case>
		<case name="Case0274">
		</case>
		<case name="Case0275">
		</case>
		<case name="Case0276">
		</case>
		<case name="Case0277">
		</case>
		<case name="Case0278">
		</case>
		<case name="Case0279">
		</case>
		<case name="Case0280">
		</case>
		<case name="Case0281">
		</case>
		<case name="Case0282">
		</case>
		<case name="Case0283">
		</case>
		<case name="Case0284">
		</case>
		<case name="Case0285">
		</case>
		<case name="Case0286">
		</case>
		<case name="Case0287">
		</case>
		<case name="Case0288">
		</case>
		<case name="Case0289">
		</case>
		<case name="Case0290">
		</case>
		<case name="Case0291">
		</case>
		<case name="Case0292">
		</case>
		<case name="Case0293">
		</case>
		<case name="Case0294">
		</case>
		<case name="Case0295">
		</case>
		<case name="Case0296">
		</case>
		<case name="Case0297">
		</case>
		<case name="Case0298">
		</case>
		<case name="Case0299">
		</case>
		<case name="Case0300">
		</case>
		<case name="Case0301">
		</case>
		<case name="Case0302">
		</case>
		<case name="Case0303">
		</case>
	</cases>
	<extensions>
		<genie version="1.0" app="GeNIe 2.5.5224.0 ACADEMIC" name="SexoPessoa">
			<node id="sexo">
				<name>sexo</name>
				<interior color="e5f6f7" />
				<outline color="000080" />
				<font color="000000" name="Arial" size="8" />
				<position>330 76 448 161</position>
				<barchart active="true" width="128" height="64" />
			</node>
			<node id="tipo_atendimento">
				<name>tipo_atendimento</name>
				<interior color="e5f6f7" />
				<outline color="000080" />
				<font color="000000" name="Arial" size="8" />
				<position>817 292 935 377</position>
				<barchart active="true" width="266" height="108" />
			</node>
			<node id="raca">
				<name>raca</name>
				<interior color="e5f6f7" />
				<outline color="000080" />
				<font color="000000" name="Arial" size="8" />
				<position>579 99 697 184</position>
				<barchart active="true" width="177" height="126" />
			</node>
			<node id="faixa_etaria">
				<name>faixa_etaria</name>
				<interior color="e5f6f7" />
				<outline color="000080" />
				<font color="000000" name="Arial" size="8" />
				<position>194 335 312 420</position>
				<barchart active="true" width="171" height="234" />
			</node>
			<node id="cidade">
				<name>cidade</name>
				<interior color="e5f6f7" />
				<outline color="000080" />
				<font color="000000" name="Arial" size="8" />
				<position>483 372 601 457</position>
				<barchart active="true" width="177" height="126" />
			</node>
		</genie>
	</extensions>
</smile>
